<?xml version="1.0"?>
<opencv_storage>
<stage13>
  <maxWeakCount>14</maxWeakCount>
  <stageThreshold>-1.0650253295898438e+00</stageThreshold>
  <weakClassifiers>
    <_>
      <internalNodes>
        0 -1 3359 3.6606565117835999e-02</internalNodes>
      <leafValues>
        -3.3479693531990051e-01 4.4267052412033081e-01</leafValues></_>
    <_>
      <internalNodes>
        0 -1 139121 1.0409722104668617e-02</internalNodes>
      <leafValues>
        -2.4904076755046844e-01 5.0042623281478882e-01</leafValues></_>
    <_>
      <internalNodes>
        0 -1 149770 6.9679692387580872e-03</internalNodes>
      <leafValues>
        -3.6872476339340210e-01 3.1353265047073364e-01</leafValues></_>
    <_>
      <internalNodes>
        0 -1 48578 5.5029229260981083e-03</internalNodes>
      <leafValues>
        -3.1489229202270508e-01 3.0666419863700867e-01</leafValues></_>
    <_>
      <internalNodes>
        0 -1 136742 1.0371424257755280e-02</internalNodes>
      <leafValues>
        -5.8663684129714966e-01 1.5555778145790100e-01</leafValues></_>
    <_>
      <internalNodes>
        0 -1 45364 7.0893198251724243e-02</internalNodes>
      <leafValues>
        1.0484094172716141e-01 -8.2127189636230469e-01</leafValues></_>
    <_>
      <internalNodes>
        0 -1 110210 -1.3507264666259289e-02</internalNodes>
      <leafValues>
        6.5683680772781372e-01 -1.4768175780773163e-01</leafValues></_>
    <_>
      <internalNodes>
        0 -1 154998 -1.8598750233650208e-02</internalNodes>
      <leafValues>
        4.7328934073448181e-01 -2.1638987958431244e-01</leafValues></_>
    <_>
      <internalNodes>
        0 -1 102281 5.5185919627547264e-03</internalNodes>
      <leafValues>
        -1.8750090897083282e-01 4.5255747437477112e-01</leafValues></_>
    <_>
      <internalNodes>
        0 -1 121458 6.3971895724534988e-03</internalNodes>
      <leafValues>
        -2.5422948598861694e-01 4.4461715221405029e-01</leafValues></_>
    <_>
      <internalNodes>
        0 -1 131515 -9.2375348322093487e-04</internalNodes>
      <leafValues>
        6.4037179946899414e-01 -1.1684146523475647e-01</leafValues></_>
    <_>
      <internalNodes>
        0 -1 83486 -2.1436259150505066e-02</internalNodes>
      <leafValues>
        2.9823505878448486e-01 -2.6521307229995728e-01</leafValues></_>
    <_>
      <internalNodes>
        0 -1 56997 8.7139755487442017e-03</internalNodes>
      <leafValues>
        7.2209574282169342e-02 -9.3596631288528442e-01</leafValues></_>
    <_>
      <internalNodes>
        0 -1 110157 3.0358696822077036e-03</internalNodes>
      <leafValues>
        -2.0461708307266235e-01 4.2594918608665466e-01</leafValues></_></weakClassifiers></stage13>
</opencv_storage>
