<?xml version="1.0"?>
<opencv_storage>
<stage5>
  <maxWeakCount>11</maxWeakCount>
  <stageThreshold>-1.3226773738861084e+00</stageThreshold>
  <weakClassifiers>
    <_>
      <internalNodes>
        0 -1 310 9.5232889056205750e-02</internalNodes>
      <leafValues>
        -3.6964979767799377e-01 6.6433566808700562e-01</leafValues></_>
    <_>
      <internalNodes>
        0 -1 64155 -4.2974215000867844e-02</internalNodes>
      <leafValues>
        4.0182280540466309e-01 -5.3937643766403198e-01</leafValues></_>
    <_>
      <internalNodes>
        0 -1 158356 -2.3738129064440727e-02</internalNodes>
      <leafValues>
        6.0668629407882690e-01 -3.4414255619049072e-01</leafValues></_>
    <_>
      <internalNodes>
        0 -1 45265 5.8572879061102867e-03</internalNodes>
      <leafValues>
        -6.5135562419891357e-01 2.3019726574420929e-01</leafValues></_>
    <_>
      <internalNodes>
        0 -1 37920 -3.0884449370205402e-03</internalNodes>
      <leafValues>
        5.3000092506408691e-01 -3.2401445508003235e-01</leafValues></_>
    <_>
      <internalNodes>
        0 -1 106791 -1.8874056637287140e-02</internalNodes>
      <leafValues>
        -8.9645487070083618e-01 1.3774208724498749e-01</leafValues></_>
    <_>
      <internalNodes>
        0 -1 148671 -1.2158395256847143e-03</internalNodes>
      <leafValues>
        5.6194144487380981e-01 -2.9138350486755371e-01</leafValues></_>
    <_>
      <internalNodes>
        0 -1 149931 2.2262181155383587e-03</internalNodes>
      <leafValues>
        -3.8231477141380310e-01 3.8457724452018738e-01</leafValues></_>
    <_>
      <internalNodes>
        0 -1 59010 6.2104775570333004e-03</internalNodes>
      <leafValues>
        -3.4755387902259827e-01 4.0385851263999939e-01</leafValues></_>
    <_>
      <internalNodes>
        0 -1 2197 1.3893635943531990e-02</internalNodes>
      <leafValues>
        -1.7384736239910126e-01 8.5661870241165161e-01</leafValues></_>
    <_>
      <internalNodes>
        0 -1 67907 -2.6357569731771946e-03</internalNodes>
      <leafValues>
        2.5587862730026245e-01 -6.7318254709243774e-01</leafValues></_></weakClassifiers></stage5>
</opencv_storage>
